{
  "architecture": "graphsage",
  "claims": {
    "authoritative": false,
    "exact_solver_required": true,
    "safety_certification": false,
    "test_partition_used_for_calibration": false
  },
  "edge_feature_names": [
    "length_mm",
    "direction_x",
    "direction_y",
    "area_mm2",
    "inertia_mm4",
    "elastic_modulus_mpa",
    "section_depth_mm",
    "allowable_stress_mpa"
  ],
  "ensemble_members": [
    {
      "conv1": {
        "neighbour_bias": [
          0.0669344961643219,
          0.1589476615190506,
          0.15257325768470764,
          -0.033602338284254074,
          0.10721933096647263,
          -0.1582418829202652,
          0.1414446085691452,
          -0.1546354442834854,
          -0.06490194797515869,
          0.1340695321559906,
          0.015248049050569534,
          -0.15251359343528748,
          0.13269804418087006,
          0.1731802225112915,
          0.09835024178028107,
          0.13421645760536194,
          -0.060339104384183884,
          0.046847108751535416,
          -0.11802718788385391,
          -0.02123250626027584,
          -0.020613079890608788,
          -0.13638275861740112,
          0.04719451442360878,
          -0.07105991989374161
        ],
        "neighbour_weight": [
          [
            -0.12121035903692245,
            0.13148310780525208,
            0.006337124388664961,
            0.07075224816799164,
            -0.03595709800720215,
            -0.21522638201713562,
            0.03068377822637558,
            0.017299938946962357,
            0.07748712599277496,
            0.10973157733678818,
            0.17439211905002594,
            0.08792136609554291,
            0.15903499722480774,
            -0.24292753636837006,
            0.11046572029590607,
            -0.05501692369580269,
            -0.17181402444839478,
            0.0887274518609047,
            0.03418280556797981,
            0.024494439363479614,
            0.09229017049074173,
            -0.1485934555530548,
            -0.18211418390274048,
            -0.1324387639760971
          ],
          [
            -0.10309702903032303,
            0.009939717128872871,
            -0.09314398467540741,
            -0.175666943192482,
            -0.05079672858119011,
            -0.2782120704650879,
            -0.12581376731395721,
            -0.12351644784212112,
            -0.08764856308698654,
            -0.09028748422861099,
            -0.012017720378935337,
            0.163688525557518,
            0.20234693586826324,
            -0.04998507350683212,
            -0.10509809106588364,
            -0.11366426199674606,
            0.05277331918478012,
            -0.08625728636980057,
            -0.09852863103151321,
            -0.14011548459529877,
            -0.08735723793506622,
            -0.12852197885513306,
            -0.030215522274374962,
            0.09837279468774796
          ],
          [
            0.12182297557592392,
            -0.12788589298725128,
            0.033460721373558044,
            -0.11868040263652802,
            -0.17061151564121246,
            -0.10957790911197662,
            0.003954664804041386,
            -0.27821025252342224,
            0.13689598441123962,
            0.16941769421100616,
            0.011396367102861404,
            0.07867670804262161,
            0.14976884424686432,
            0.15036341547966003,
            0.07948704063892365,
            0.19857726991176605,
            0.09059612452983856,
            -0.15857051312923431,
            0.10681803524494171,
            0.03466998040676117,
            0.1389513909816742,
            0.100844606757164,
            -0.17983417212963104,
            0.17021900415420532
          ],
          [
            0.03678200766444206,
            0.08719895780086517,
            0.07599954307079315,
            -0.054836705327034,
            0.05701172724366188,
            -0.17036938667297363,
            0.033089347183704376,
            -0.025857191532850266,
            -0.07823742926120758,
            0.07903942465782166,
            -0.013279961422085762,
            -0.0001802734041120857,
            0.29715606570243835,
            0.066750667989254,
            -0.09791246056556702,
            -0.2873023748397827,
            0.04774986580014229,
            -0.08676209300756454,
            -0.25880128145217896,
            -0.1283099353313446,
            0.18258655071258545,
            -0.12654292583465576,
            -0.17520231008529663,
            -0.13560421764850616
          ],
          [
            0.007189170457422733,
            -0.031824447214603424,
            -0.10538692027330399,
            -0.09404575824737549,
            -0.12269800156354904,
            0.01578850857913494,
            -0.025377200916409492,
            0.08434762805700302,
            -0.013368828222155571,
            0.04856445640325546,
            0.22521695494651794,
            0.03436528146266937,
            -0.0008466836879961193,
            0.03708135336637497,
            -0.019652273505926132,
            -0.05613857880234718,
            0.08951938897371292,
            0.03358856588602066,
            0.08105873316526413,
            -0.10579753667116165,
            0.28740760684013367,
            0.14589327573776245,
            -0.1336340457201004,
            -0.046708837151527405
          ],
          [
            0.16066919267177582,
            -0.05888967216014862,
            -0.0254253800958395,
            0.23911142349243164,
            -0.05447406321763992,
            0.14082878828048706,
            -0.011976904235780239,
            -0.061200983822345734,
            0.2878054678440094,
            0.19938306510448456,
            -0.2439785599708557,
            -0.0405476912856102,
            -0.08293846249580383,
            0.05648018792271614,
            0.09792831540107727,
            -0.19929203391075134,
            0.18465696275234222,
            -0.2245052307844162,
            0.1282116323709488,
            0.025711480528116226,
            0.05084187537431717,
            0.2666659951210022,
            0.06161079928278923,
            -0.07466991245746613
          ],
          [
            -0.026212427765130997,
            0.16933968663215637,
            -0.06874842941761017,
            0.011922557838261127,
            -0.1960510015487671,
            -0.027181653305888176,
            0.008247576653957367,
            0.06882432103157043,
            -0.06901777535676956,
            -0.005558674223721027,
            0.0994027629494667,
            0.27583327889442444,
            -0.004180788993835449,
            0.29180386662483215,
            0.1611357182264328,
            0.03501258045434952,
            0.22495132684707642,
            0.10717131942510605,
            -0.0782485231757164,
            0.1931065171957016,
            -0.014689777977764606,
            0.0678626149892807,
            0.09363691508769989,
            0.013779209926724434
          ],
          [
            -0.13481071591377258,
            -0.026588983833789825,
            -0.07157158851623535,
            -0.00339735159650445,
            0.17253319919109344,
            -0.12705759704113007,
            0.0053752101957798,
            -0.15147875249385834,
            -0.14524458348751068,
            0.07968460768461227,
            0.17364628612995148,
            0.20131008327007294,
            0.07249340415000916,
            0.012512057088315487,
            -0.04379947483539581,
            0.1309819221496582,
            -0.033772245049476624,
            0.10686080157756805,
            0.1097119003534317,
            -0.13197118043899536,
            0.2283308207988739,
            0.052428338676691055,
            -0.28241148591041565,
            -0.16511113941669464
          ],
          [
            -0.13588102161884308,
            0.21077226102352142,
            0.23003660142421722,
            -0.14093653857707977,
            0.14328916370868683,
            0.1637077033519745,
            -0.04052916541695595,
            0.08645276725292206,
            0.0957372710108757,
            0.12193199247121811,
            -0.007700598798692226,
            0.20460061728954315,
            0.18801023066043854,
            -0.03168249875307083,
            -0.07675681263208389,
            0.16025976836681366,
            0.07806800305843353,
            -0.22820734977722168,
            -0.17382942140102386,
            -0.10939107090234756,
            0.23382620513439178,
            -0.04645524546504021,
            -0.15102195739746094,
            -0.266182541847229
          ],
          [
            -0.027192115783691406,
            -0.050611965358257294,
            -0.13887901604175568,
            0.12794587016105652,
            0.09354200214147568,
            -0.19246217608451843,
            0.09386222809553146,
            0.06403734534978867,
            -0.2027544379234314,
            -0.06997865438461304,
            0.0014389214338734746,
            -0.06995324045419693,
            0.1676185131072998,
            0.00347400875762105,
            0.24442103505134583,
            -0.03509945049881935,
            0.1453789472579956,
            -0.09091556072235107,
            -0.212053582072258,
            0.06136650592088699,
            0.28850841522216797,
            0.02890266664326191,
            -0.31404903531074524,
            0.12657427787780762
          ],
          [
            -0.08823610842227936,
            -0.15282297134399414,
            -0.033939410001039505,
            -0.07390674203634262,
            0.08994212746620178,
            -0.023207787424325943,
            0.023194290697574615,
            -0.054033584892749786,
            -0.15662099421024323,
            -0.05193009600043297,
            0.22124654054641724,
            0.03476868197321892,
            0.15138816833496094,
            -0.07735253870487213,
            0.07443705946207047,
            -0.09945615381002426,
            -0.014458556659519672,
            -0.08956320583820343,
            -0.1828574240207672,
            0.1811223030090332,
            0.2065543532371521,
            0.17771439254283905,
            0.11567725986242294,
            0.1597881317138672
          ],
          [
            -0.09709037095308304,
            0.14880523085594177,
            -0.20454566180706024,
            0.08589299023151398,
            -0.1857316941022873,
            0.17941701412200928,
            -0.02544219046831131,
            0.17264987528324127,
            0.09733560681343079,
            0.1132090836763382,
            -0.07175496965646744,
            -0.1699685901403427,
            -0.15686719119548798,
            -0.12512603402137756,
            -0.15086150169372559,
            0.15246348083019257,
            0.12246285378932953,
            0.07111356407403946,
            0.11860832571983337,
            -0.17558813095092773,
            -0.07066484540700912,
            0.13877403736114502,
            -0.1606103777885437,
            -0.10379388928413391
          ],
          [
            0.25062495470046997,
            -0.05067085474729538,
            -0.2154025286436081,
            0.20865027606487274,
            -0.044253427535295486,
            0.18702039122581482,
            0.054744377732276917,
            0.15085530281066895,
            0.27562034130096436,
            0.09715665131807327,
            -0.21495674550533295,
            0.18093428015708923,
            -0.2183227390050888,
            0.25369009375572205,
            -0.18242037296295166,
            -0.11717477440834045,
            0.10746679455041885,
            0.16649706661701202,
            0.1531509906053543,
            -0.05274036526679993,
            -0.2860913872718811,
            0.158426433801651,
            0.008283373899757862,
            -0.0636497214436531
          ],
          [
            -0.023081213235855103,
            -0.06261191517114639,
            -0.1806327849626541,
            -0.0010208539897575974,
            0.02838325686752796,
            0.2543603479862213,
            0.07307132333517075,
            0.06673561036586761,
            0.10755474865436554,
            -0.11633329093456268,
            -0.08622362464666367,
            0.029656533151865005,
            0.027490517124533653,
            0.22959354519844055,
            0.13860830664634705,
            -0.19283872842788696,
            0.10064680129289627,
            0.1254652738571167,
            -0.10249723494052887,
            0.18219642341136932,
            0.06391892582178116,
            0.03682183474302292,
            -0.02464769221842289,
            0.2202618420124054
          ],
          [
            0.17910784482955933,
            -0.05338158831000328,
            -0.054027874022722244,
            0.2163388431072235,
            -0.1014057844877243,
            -0.01814541034400463,
            -0.01310600433498621,
            -0.05365857481956482,
            -0.20669379830360413,
            -0.047796037048101425,
            -0.020309854298830032,
            0.01988556981086731,
            0.24396948516368866,
            -0.23379991948604584,
            0.2734106779098511,
            0.17945392429828644,
            -0.062356334179639816,
            0.09646809846162796,
            -0.04721605032682419,
            -0.09093054383993149,
            -0.05877155438065529,
            -0.017023000866174698,
            -0.1605294644832611,
            0.06077812239527702
          ],
          [
            -0.1637578308582306,
            0.21283571422100067,
            0.04542981833219528,
            0.060095079243183136,
            -0.005496397614479065,
            -0.09022761136293411,
            -0.1560484617948532,
            -0.06622427701950073,
            0.07841519266366959,
            0.06671108305454254,
            0.14285936951637268,
            -0.13089032471179962,
            0.20559869706630707,
            -0.18301725387573242,
            -0.06475043296813965,
            -0.0019296641694381833,
            -0.1920522153377533,
            -0.12735849618911743,
            0.17822527885437012,
            -0.12373954057693481,
            0.03875964879989624,
            0.2070344239473343,
            -0.18330690264701843,
            0.04795913025736809
          ],
          [
            0.16630138456821442,
            0.16021427512168884,
            0.12539128959178925,
            0.170461505651474,
            0.043983086943626404,
            -0.15950477123260498,
            -0.12993884086608887,
            -0.06305895000696182,
            -0.07865512371063232,
            0.04100761190056801,
            0.12669897079467773,
            -0.023771582171320915,
            0.22003138065338135,
            -0.3130768835544586,
            0.07032467424869537,
            -0.08792100846767426,
            0.06346624344587326,
            0.07892505079507828,
            -0.08647172898054123,
            -0.06764183938503265,
            0.20174895226955414,
            -0.010173468850553036,
            -0.0002874125202652067,
            -0.15209776163101196
          ],
          [
            -0.022962303832173347,
            -0.017813557758927345,
            -0.2102234661579132,
            -0.08881238102912903,
            0.06841881573200226,
            0.07775159180164337,
            0.2098231017589569,
            -0.10551194101572037,
            0.13427115976810455,
            -0.12020202726125717,
            -0.16586600244045258,
            0.04732629284262657,
            -8.746609091758728e-05,
            -0.08026067912578583,
            -0.07973926514387131,
            0.05438563972711563,
            -0.12798991799354553,
            -0.08139099925756454,
            -0.14415566623210907,
            -0.17042973637580872,
            -0.1578214168548584,
            -0.12381219863891602,
            -0.10013242810964584,
            -0.14906474947929382
          ],
          [
            0.12189491093158722,
            0.0891341120004654,
            -0.09680061787366867,
            -0.2949178218841553,
            -0.06310771405696869,
            -0.0853089913725853,
            -0.2703331708908081,
            -0.08067945390939713,
            0.027083616703748703,
            0.17526742815971375,
            -0.03552806004881859,
            -0.07776717841625214,
            -0.151985764503479,
            -0.08879034221172333,
            0.1654427945613861,
            -0.015714392066001892,
            0.011387004517018795,
            -0.07139519602060318,
            -0.1511215716600418,
            -0.10238815099000931,
            0.20746105909347534,
            -0.2296992540359497,
            -0.018238676711916924,
            0.020467540249228477
          ],
          [
            -0.19058454036712646,
            0.0707065612077713,
            0.08608957380056381,
            0.03682541474699974,
            0.1742856204509735,
            -0.10967481136322021,
            -0.20422466099262238,
            -0.1366489678621292,
            -0.2021670937538147,
            0.05077072232961655,
            0.03436864912509918,
            -0.10880684852600098,
            -0.07025690376758575,
            0.10284725576639175,
            -0.01501270942389965,
            0.15520106256008148,
            -0.09360690414905548,
            0.012285267934203148,
            0.0354352705180645,
            -0.08783546090126038,
            0.1373683363199234,
            -0.07400252670049667,
            0.04567299410700798,
            -0.1799180507659912
          ],
          [
            0.08008984476327896,
            0.1293472945690155,
            -0.20466764271259308,
            0.20453301072120667,
            0.011969066224992275,
            0.23334650695323944,
            0.14373579621315002,
            0.07202286273241043,
            0.0004641384584829211,
            0.0546095073223114,
            0.0524783730506897,
            -0.12207470089197159,
            0.11132138222455978,
            0.23408465087413788,
            -0.06924324482679367,
            -0.21164987981319427,
            0.19666890799999237,
            0.18974177539348602,
            0.031994614750146866,
            -0.17874158918857574,
            -0.05162897706031799,
            -0.009358257986605167,
            0.15917208790779114,
            -0.16170281171798706
          ],
          [
            -0.11576547473669052,
            0.027479227632284164,
            0.015826378017663956,
            0.015131707303225994,
            0.26055410504341125,
            0.10445061326026917,
            0.18454428017139435,
            -0.26033714413642883,
            0.09880264848470688,
            -0.14036233723163605,
            0.023902006447315216,
            0.13972926139831543,
            0.04271415248513222,
            -0.21758411824703217,
            0.09858743101358414,
            0.2948230504989624,
            -0.08054201304912567,
            -0.28937143087387085,
            -0.03447330370545387,
            -0.2088509500026703,
            0.13401035964488983,
            0.16704069077968597,
            0.061326075345277786,
            -0.014040694572031498
          ],
          [
            -0.1456121802330017,
            -0.14085550606250763,
            0.057062115520238876,
            0.07766704261302948,
            -0.19464406371116638,
            0.08984316885471344,
            -0.07104429602622986,
            -0.07917807251214981,
            0.2888553738594055,
            0.08530246466398239,
            -0.16929972171783447,
            0.17637880146503448,
            -0.2580486536026001,
            0.25152191519737244,
            0.015087471343576908,
            -0.1708625704050064,
            -0.026305226609110832,
            0.11097682267427444,
            0.13260334730148315,
            0.07194439321756363,
            -0.2682764530181885,
            -0.1386490911245346,
            0.1032525971531868,
            0.11396981030702591
          ],
          [
            0.145807147026062,
            0.19471752643585205,
            0.20341463387012482,
            -0.04812697693705559,
            -0.06915926188230515,
            -0.24951522052288055,
            -0.04775404557585716,
            0.1026773527264595,
            -0.007333691697567701,
            0.07871916145086288,
            0.1402045041322708,
            -0.15182706713676453,
            0.05479412153363228,
            -0.2333039939403534,
            -0.04761845991015434,
            0.2518041133880615,
            0.08068718761205673,
            -0.07178135216236115,
            -0.12112301588058472,
            0.054758220911026,
            -0.0006830792408436537,
            -0.17026779055595398,
            -0.05972011014819145,
            0.011614219285547733
          ]
        ],
        "root_weight": [
          [
            -0.07481174916028976,
            -0.20062945783138275,
            0.0721881091594696,
            0.12612342834472656,
            0.2530258297920227,
            0.15685327351093292,
            -0.20572085678577423,
            0.0748458281159401,
            0.12245473265647888,
            0.08118605613708496,
            0.17471149563789368,
            0.1489645391702652,
            0.23279273509979248,
            -0.11023690551519394,
            -0.090385302901268,
            0.10355422645807266,
            -0.20231522619724274,
            0.11506254971027374,
            0.14704060554504395,
            -0.12000994384288788,
            0.2938203513622284,
            0.016719220206141472,
            -0.23602432012557983,
            0.10501737892627716
          ],
          [
            0.1634402871131897,
            0.2062579095363617,
            0.09869073331356049,
            0.082869753241539,
            0.11832371354103088,
            0.0466734953224659,
            -0.24266266822814941,
            -0.16965512931346893,
            -0.029629917815327644,
            0.12522625923156738,
            0.013156029395759106,
            0.10124634206295013,
            -0.06929700076580048,
            -0.17259128391742706,
            0.13265563547611237,
            0.052564844489097595,
            0.009204253554344177,
            -0.007865886203944683,
            0.06852048635482788,
            -0.08705372363328934,
            0.24614311754703522,
            0.1857602745294571,
            -0.09971324354410172,
            -0.19283775985240936
          ],
          [
            0.0656551644206047,
            0.14716197550296783,
            0.12711064517498016,
            -0.13613305985927582,
            -0.04625273123383522,
            0.03939240053296089,
            0.050946194678545,
            -0.05258718132972717,
            0.16858544945716858,
            -0.057935554534196854,
            0.12583093345165253,
            -0.10517573356628418,
            0.30617353320121765,
            0.024469010531902313,
            -0.02379511669278145,
            0.13969042897224426,
            -0.03587452694773674,
            -0.17344363033771515,
            -0.14645174145698547,
            0.1623927801847458,
            0.2596431374549866,
            0.11471157521009445,
            -0.05332770198583603,
            -0.15558187663555145
          ],
          [
            -0.05012509971857071,
            -0.14774738252162933,
            -0.14327742159366608,
            0.04315897822380066,
            0.17046554386615753,
            0.05186040326952934,
            -0.12213113158941269,
            -0.026688946411013603,
            0.18701055645942688,
            0.08683432638645172,
            0.06302010267972946,
            -0.19053588807582855,
            -0.1737724095582962,
            0.24528741836547852,
            -0.35445642471313477,
            -0.11953891813755035,
            -0.25543299317359924,
            0.11879637837409973,
            0.16519860923290253,
            0.03088131733238697,
            0.0413476899266243,
            0.14876335859298706,
            0.1660483181476593,
            0.08974767476320267
          ],
          [
            -0.023443713784217834,
            0.005221125204116106,
            -0.07537946105003357,
            0.05853395536541939,
            -0.14621864259243011,
            -0.07857920229434967,
            -0.1389579027891159,
            0.02068503201007843,
            -0.028557702898979187,
            -0.12369956821203232,
            0.11264563351869583,
            0.02540346048772335,
            0.27145156264305115,
            0.020069213584065437,
            0.2085408717393875,
            0.19564145803451538,
            -0.05916145443916321,
            0.058255914598703384,
            -0.22956234216690063,
            0.07961561530828476,
            0.26921188831329346,
            0.12056969106197357,
            -0.1642000377178192,
            -0.11332068592309952
          ],
          [
            0.16037029027938843,
            0.03198261186480522,
            0.1614128202199936,
            0.15868449211120605,
            -0.04628702253103256,
            0.09073332697153091,
            -0.20761863887310028,
            -0.17207174003124237,
            -0.07919827103614807,
            -0.17814050614833832,
            -0.1977265179157257,
            0.1322474628686905,
            0.2297412008047104,
            0.09741758555173874,
            0.15037254989147186,
            -0.25798630714416504,
            0.3166810870170593,
            0.1790756732225418,
            0.13770398497581482,
            -0.03543391823768616,
            -0.014139393344521523,
            0.14723755419254303,
            -0.031233452260494232,
            0.09043017774820328
          ],
          [
            -0.005569434259086847,
            -0.18574823439121246,
            -0.1045452430844307,
            0.1635611355304718,
            0.03292252495884895,
            0.12827065587043762,
            0.0028858284931629896,
            0.012106518261134624,
            0.12949149310588837,
            -0.17023605108261108,
            -0.0625276267528534,
            0.023121505975723267,
            -0.15057140588760376,
            -0.07317794859409332,
            -0.062073417007923126,
            -0.2623943090438843,
            -0.12319395691156387,
            0.23676665127277374,
            -0.006200834177434444,
            0.025913482531905174,
            -0.23686520755290985,
            0.062237098813056946,
            0.223384827375412,
            0.21966587007045746
          ],
          [
            -0.11672381311655045,
            0.03414526581764221,
            0.1948072463274002,
            0.17417900264263153,
            0.2709944546222687,
            -0.21941903233528137,
            -0.18435119092464447,
            -0.23182615637779236,
            0.04199569299817085,
            -0.17146258056163788,
            0.11775758862495422,
            0.15426787734031677,
            0.15602490305900574,
            -0.1618340164422989,
            0.20473644137382507,
            0.11393995583057404,
            0.07982388883829117,
            -0.2192779928445816,
            0.18090127408504486,
            -0.01645124889910221,
            -0.03239299729466438,
            0.09779492020606995,
            -0.26049503684043884,
            0.14474286139011383
          ],
          [
            0.10097922384738922,
            -0.15770423412322998,
            0.05394124612212181,
            -0.026883676648139954,
            -0.030996304005384445,
            -0.2316073179244995,
            -0.14373081922531128,
            -0.29042404890060425,
            0.019016224890947342,
            0.03607393801212311,
            0.09217378497123718,
            -0.14199373126029968,
            -0.020454702898859978,
            -0.2079729586839676,
            0.08395839482545853,
            -0.10821510851383209,
            0.12339567393064499,
            -0.16765666007995605,
            0.05936044454574585,
            0.17017221450805664,
            0.004886075854301453,
            0.20709013938903809,
            -0.3289971947669983,
            0.045863039791584015
          ],
          [
            -0.1249813511967659,
            0.024179019033908844,
            0.22438818216323853,
            0.17171484231948853,
            0.10033424198627472,
            -0.1031741052865982,
            0.09127321094274521,
            -0.2364676594734192,
            0.06519872695207596,
            -0.1522553563117981,
            -0.07932882755994797,
            0.18647272884845734,
            -0.019472278654575348,
            -0.20628663897514343,
            0.12690424919128418,
            0.09271832555532455,
            -0.009179455228149891,
            -0.18691207468509674,
            -0.11003107577562332,
            0.1392686814069748,
            0.2735621929168701,
            -0.09602563828229904,
            -0.08084207773208618,
            -0.12526696920394897
          ],
          [
            0.1724790781736374,
            0.0012066276976838708,
            -0.10041162371635437,
            0.1385737955570221,
            0.17663100361824036,
            -0.05654429271817207,
            -0.06931891292333603,
            0.0028463152702897787,
            -0.14616507291793823,
            -0.001447027432732284,
            0.02910960093140602,
            -0.15795356035232544,
            0.1790667474269867,
            -0.19125591218471527,
            -0.020695360377430916,
            -0.099012091755867,
            0.06412587314844131,
            0.14459849894046783,
            0.12268936634063721,
            -0.0364135317504406,
            0.11599833518266678,
            -0.15261392295360565,
            -0.19639994204044342,
            -0.03668607398867607
          ],
          [
            -0.19071641564369202,
            -0.04731138423085213,
            0.16112235188484192,
            -0.12339773774147034,
            -0.13028576970100403,
            0.21573086082935333,
            -0.09965043514966965,
            0.059239462018013,
            0.00891312025487423,
            -0.19667738676071167,
            0.009889950044453144,
            -0.06577908992767334,
            -0.009168102405965328,
            0.13119617104530334,
            -0.04923428222537041,
            0.04340215027332306,
            0.030141325667500496,
            -0.0899241492152214,
            -0.01287451945245266,
            0.08554263412952423,
            -0.03374381363391876,
            0.05572430416941643,
            0.04409829527139664,
            0.09216872602701187
          ],
          [
            0.05335257947444916,
            -0.07008235901594162,
            -0.1959395408630371,
            -0.06823300570249557,
            -0.12018874287605286,
            0.008026531897485256,
            -0.11735806614160538,
            0.0381869412958622,
            0.000524431059602648,
            0.013840149156749249,
            -0.018868274986743927,
            0.25412774085998535,
            -0.01718817465007305,
            0.3033274710178375,
            -0.14725972712039948,
            -0.10330450534820557,
            0.038647785782814026,
            0.06119975820183754,
            -0.12262892723083496,
            -0.08568108081817627,
            -0.22585463523864746,
            0.22267383337020874,
            0.07119986414909363,
            0.18769800662994385
          ],
          [
            0.08923832327127457,
            -0.020654898136854172,
            0.018345147371292114,
            -0.01972213201224804,
            -0.09489604085683823,
            0.10506060719490051,
            -0.15075594186782837,
            0.1403992772102356,
            0.0670357421040535,
            -0.13204683363437653,
            0.11152459681034088,
            -0.11166002601385117,
            -0.15120774507522583,
            0.15635253489017487,
            0.05047958344221115,
            -0.11372710764408112,
            0.07199026644229889,
            0.24048560857772827,
            0.19439321756362915,
            0.033952005207538605,
            -0.2503296732902527,
            -0.13107852637767792,
            0.19237983226776123,
            -0.044572073966264725
          ],
          [
            0.11203848570585251,
            0.05422379449009895,
            0.13841956853866577,
            -0.15887874364852905,
            -0.12158075720071793,
            -0.18910853564739227,
            -0.1427008956670761,
            0.13818450272083282,
            -0.07143507897853851,
            -0.04360279068350792,
            -0.00447081308811903,
            -0.06662771850824356,
            0.16263140738010406,
            -0.19658918678760529,
            0.2559576630592346,
            -0.039655957370996475,
            -0.1875489354133606,
            0.05591779574751854,
            0.11816868185997009,
            0.176406130194664,
            -0.05817857012152672,
            0.07256214320659637,
            -0.041050683706998825,
            -0.0030351318418979645
          ],
          [
            -0.02206147089600563,
            0.0815211609005928,
            0.04724740609526634,
            0.014709603041410446,
            0.09722961485385895,
            0.11014211922883987,
            -0.026670299470424652,
            0.026173479855060577,
            -0.09166336804628372,
            0.03242551535367966,
            0.19491836428642273,
            0.11439492553472519,
            0.022988850250840187,
            -0.29784509539604187,
            0.04503472521901131,
            0.26099318265914917,
            0.12312184274196625,
            -0.026954108849167824,
            0.04191694036126137,
            -0.12683828175067902,
            -0.0013252958888188004,
            0.05369464308023453,
            0.04326394945383072,
            0.1917923241853714
          ],
          [
            0.12963780760765076,
            -0.1328423172235489,
            0.10152910649776459,
            -0.05201128125190735,
            -0.09220219403505325,
            -0.3012390732765198,
            -0.047429408878088,
            -0.2854798436164856,
            0.009005151689052582,
            0.13710010051727295,
            -0.10020820796489716,
            0.10191074758768082,
            -0.024750730022788048,
            -0.19218958914279938,
            0.24655471742153168,
            0.16013891994953156,
            0.07870087772607803,
            -0.17160223424434662,
            0.18814502656459808,
            -0.12905481457710266,
            0.2721961438655853,
            -0.10277451574802399,
            -0.2548981010913849,
            0.08071260899305344
          ],
          [
            0.1655168980360031,
            -0.19079133868217468,
            0.08224567025899887,
            -0.0237052571028471,
            0.1735595315694809,
            0.08065962791442871,
            0.044016726315021515,
            0.05326487123966217,
            -0.09487581998109818,
            0.07050742208957672,
            -0.09313277900218964,
            -0.07164166867733002,
            0.15558628737926483,
            0.21806897222995758,
            0.16811087727546692,
            0.21844720840454102,
            -0.15983647108078003,
            -0.05291743949055672,
            0.14248965680599213,
            -0.17944051325321198,
            0.22364021837711334,
            -0.023991189897060394,
            0.13691125810146332,
            -0.02649223804473877
          ],
          [
            0.005329984240233898,
            0.031120076775550842,
            0.08250746876001358,
            0.1471700221300125,
            0.03307674825191498,
            -0.1470470428466797,
            0.14581459760665894,
            0.0526542142033577,
            -0.1390659362077713,
            0.2271721512079239,
            -0.13244478404521942,
            0.022457636892795563,
            -0.35560154914855957,
            0.1120104268193245,
            -0.001852453569881618,
            -0.0974237248301506,
            -0.21688340604305267,
            -0.16873383522033691,
            0.11349523812532425,
            0.02562534436583519,
            0.129548117518425,
            0.03158913180232048,
            0.11370180547237396,
            0.011383803561329842
          ],
          [
            -0.0888296440243721,
            -0.17260947823524475,
            -0.13078585267066956,
            -0.15078534185886383,
            -0.14509068429470062,
            -0.06353732943534851,
            -0.08477183431386948,
            0.038128018379211426,
            -0.211295947432518,
            0.09072884917259216,
            0.07006873190402985,
            0.043344199657440186,
            0.0025201309472322464,
            -0.12420903146266937,
            -0.20428167283535004,
            -0.017772484570741653,
            0.02188570238649845,
            0.0011379040079191327,
            0.021699294447898865,
            -0.15713153779506683,
            0.1211807131767273,
            -0.1606723964214325,
            0.1506941318511963,
            -0.1643804907798767
          ],
          [
            -0.17438754439353943,
            0.02931632287800312,
            -0.08656946569681168,
            -0.08720071613788605,
            -0.0523996576666832,
            0.30626747012138367,
            -0.18342797458171844,
            0.022587362676858902,
            0.15449127554893494,
            0.13295583426952362,
            0.17267470061779022,
            0.1220560148358345,
            -0.04471023380756378,
            -0.11153800785541534,
            0.027699677273631096,
            -0.14831696450710297,
            0.04299504682421684,
            -0.08705304563045502,
            -0.1912214607000351,
            -0.16131623089313507,
            0.034090556204319,
            -0.17133216559886932,
            -0.014214932918548584,
            0.05535562336444855
          ],
          [
            0.016615446656942368,
            0.13119708001613617,
            -0.05540265142917633,
            0.1336463987827301,
            -0.008254090324044228,
            -0.00450443010777235,
            -0.13393382728099823,
            0.018697720021009445,
            -0.04172533005475998,
            0.03746328875422478,
            0.1922801434993744,
            -0.023222004994750023,
            -0.1060120165348053,
            -0.15441443026065826,
            0.037567220628261566,
            0.26823490858078003,
            -0.025293566286563873,
            0.025408422574400902,
            0.11560891568660736,
            -0.08484666794538498,
            0.0903923436999321,
            0.16963724792003632,
            0.09834957122802734,
            -0.01156768761575222
          ],
          [
            0.18072554469108582,
            0.020705625414848328,
            0.14749450981616974,
            -0.019993798807263374,
            0.04611115902662277,
            0.11375275999307632,
            0.12297417968511581,
            0.13879834115505219,
            0.22224043309688568,
            -0.009860064834356308,
            -0.13079442083835602,
            -0.023432869464159012,
            -0.16010873019695282,
            0.13758835196495056,
            -0.23287096619606018,
            0.05437711253762245,
            0.26132482290267944,
            0.18108414113521576,
            0.027315380051732063,
            -0.07595938444137573,
            -0.09062289446592331,
            -0.03920242562890053,
            0.09409341216087341,
            0.20333494246006012
          ],
          [
            0.05861031636595726,
            -0.12497380375862122,
            0.13922278583049774,
            -0.21606728434562683,
            0.11866844445466995,
            0.03615330904722214,
            0.17476071417331696,
            -0.1906193345785141,
            0.14038868248462677,
            -0.1372227817773819,
            0.13676688075065613,
            -0.1257414072751999,
            0.2582409381866455,
            -0.21323077380657196,
            0.2668696343898773,
            0.20610806345939636,
            0.09430106729269028,
            -0.1802108734846115,
            -0.08248334378004074,
            -0.1896229088306427,
            0.10964959859848022,
            0.04062148556113243,
            0.04742759093642235,
            0.03181285411119461
          ]
        ]
      },
      "conv2": {
        "neighbour_bias": [
          0.15503084659576416,
          -0.17864756286144257,
          -0.009851638227701187,
          0.18737481534481049,
          0.19566723704338074,
          -0.10920178145170212,
          0.042074352502822876,
          0.042654987424612045,
          0.12050029635429382,
          0.27522745728492737,
          -0.10309206694364548,
          -0.01755782775580883,
          0.19807356595993042,
          0.017627311870455742,
          0.12520171701908112,
          0.034589964896440506,
          0.12384151667356491,
          -0.13843829929828644,
          -0.194248765707016,
          -0.1582861989736557,
          -0.1239384189248085,
          -0.17847570776939392,
          0.15790212154388428,
          0.05485870689153671
        ],
        "neighbour_weight": [
          [
            -0.16526328027248383,
            0.1526472121477127,
            -0.14975093305110931,
            0.36478450894355774,
            0.04852708801627159,
            -0.11519201844930649,
            0.13394387066364288,
            -0.15565267205238342,
            -0.11958170682191849,
            -0.20322661101818085,
            -0.12054619193077087,
            0.04621969163417816,
            0.21772459149360657,
            0.12669289112091064,
            0.0315377376973629,
            -0.008861959911882877,
            0.17098544538021088,
            -0.16679659485816956,
            0.2462800145149231,
            -0.12284059077501297,
            0.3230968117713928,
            -0.19821760058403015,
            -0.04169822111725807,
            -0.22600743174552917
          ],
          [
            0.04444076493382454,
            0.09091167151927948,
            0.10051261633634567,
            -0.1983906328678131,
            0.009771970100700855,
            -0.22126410901546478,
            -0.14913789927959442,
            -0.02354847826063633,
            -0.06372959166765213,
            0.17451782524585724,
            -0.16667072474956512,
            0.20215821266174316,
            -0.19144046306610107,
            -0.16034278273582458,
            -0.21267881989479065,
            -0.12280665338039398,
            -0.09889183938503265,
            -0.03294295072555542,
            -0.12431161105632782,
            -0.021950051188468933,
            -0.056115683168172836,
            -0.1286923736333847,
            0.049016550183296204,
            0.133874773979187
          ],
          [
            0.06142904981970787,
            -0.10039009153842926,
            -0.18198317289352417,
            0.12569251656532288,
            -0.10785379260778427,
            -0.035180989652872086,
            0.2383565753698349,
            0.12288165092468262,
            -0.049696117639541626,
            -0.13880330324172974,
            -0.1415705531835556,
            0.13111598789691925,
            0.0632123276591301,
            -0.03189501911401749,
            -0.04455973207950592,
            -0.008854903280735016,
            0.109872967004776,
            -0.17848379909992218,
            0.09585170447826385,
            -0.15192222595214844,
            0.25543200969696045,
            -0.23945406079292297,
            0.15181639790534973,
            -0.2554084360599518
          ],
          [
            0.22635287046432495,
            0.06368325650691986,
            -0.09954680502414703,
            -0.1658465564250946,
            -0.10305515676736832,
            0.12448018789291382,
            -0.06097763031721115,
            -0.021225204691290855,
            0.07633871585130692,
            0.15600833296775818,
            0.15043173730373383,
            -0.09750039130449295,
            -0.1999492198228836,
            0.025114648044109344,
            0.2087613046169281,
            0.08613076061010361,
            -0.025724565610289574,
            -0.046475544571876526,
            -0.05389285460114479,
            0.03764243423938751,
            -0.02542388066649437,
            0.00754031166434288,
            -0.2604728639125824,
            0.2109975516796112
          ],
          [
            0.2940172553062439,
            0.2026233971118927,
            0.10022007673978806,
            -0.011037182994186878,
            0.04900345206260681,
            -0.10581192374229431,
            -0.14998146891593933,
            0.029480040073394775,
            0.19113154709339142,
            0.0046736313961446285,
            0.2790510058403015,
            -0.2287890762090683,
            -0.18100179731845856,
            -0.10489852726459503,
            0.21282704174518585,
            -0.11290787160396576,
            -0.017451925203204155,
            -0.3356912136077881,
            0.13965068757534027,
            -0.012255646288394928,
            -0.09013908356428146,
            0.24382680654525757,
            0.005268544424325228,
            -0.03354794159531593
          ],
          [
            0.017262909561395645,
            -0.0019858202431350946,
            -0.08975155651569366,
            -0.07037971913814545,
            -0.11630614846944809,
            -0.06768108904361725,
            -0.15777987241744995,
            0.15089046955108643,
            -0.03101966343820095,
            -0.05592619627714157,
            -0.04782490059733391,
            -0.01639905571937561,
            -0.1503799706697464,
            -6.710956949973479e-05,
            0.07272141426801682,
            0.015479248017072678,
            0.11447148770093918,
            -0.1722879260778427,
            -0.17080704867839813,
            -0.10638353228569031,
            -0.07600029557943344,
            -0.07227727770805359,
            -0.08842732757329941,
            -0.05443257465958595
          ],
          [
            0.20441067218780518,
            -0.18393421173095703,
            -0.12005966901779175,
            -0.1701880246400833,
            0.015305496752262115,
            0.10332328826189041,
            -0.050442200154066086,
            0.15584148466587067,
            0.2624693810939789,
            0.23397742211818695,
            -0.0022609313018620014,
            -0.014107024297118187,
            -0.11732275784015656,
            0.06665445119142532,
            0.2825819253921509,
            0.25481870770454407,
            0.11528569459915161,
            0.012708949856460094,
            0.006021865177899599,
            -0.19224382936954498,
            -0.0024978804867714643,
            0.07328737527132034,
            -0.0990966334939003,
            0.1498827338218689
          ],
          [
            -0.07855319231748581,
            -0.07027283310890198,
            0.19675356149673462,
            0.17854852974414825,
            -0.12571728229522705,
            -0.004213075619190931,
            0.1699025183916092,
            0.11158108711242676,
            0.04447006434202194,
            -0.0914338156580925,
            -0.125935897231102,
            0.008522003889083862,
            0.05038803815841675,
            0.2049635350704193,
            -0.17593799531459808,
            0.12764321267604828,
            -0.12059149891138077,
            0.20732326805591583,
            0.18436771631240845,
            -0.02721022069454193,
            0.09590784460306168,
            0.11164220422506332,
            0.1757264882326126,
            -0.04580292850732803
          ],
          [
            -0.0520269051194191,
            0.09088636189699173,
            -0.0005970225320197642,
            -0.005845501087605953,
            0.10815289616584778,
            0.042195383459329605,
            -0.047614168375730515,
            0.21119023859500885,
            0.07669681310653687,
            -0.03354001045227051,
            0.05757435783743858,
            0.023735791444778442,
            -0.03481572866439819,
            0.18060430884361267,
            0.02304268255829811,
            0.10905025154352188,
            -0.1026272103190422,
            -0.038818102329969406,
            0.22335347533226013,
            0.1901659071445465,
            0.0296636950224638,
            -0.02920401468873024,
            -0.09988590329885483,
            0.16490355134010315
          ],
          [
            0.3207987844944,
            -0.1286698579788208,
            -0.11435054242610931,
            0.23751728236675262,
            0.08107578754425049,
            -0.13452613353729248,
            0.07207361608743668,
            0.060779210180044174,
            -0.1507352590560913,
            -0.006333094090223312,
            0.4068297743797302,
            -0.3718532621860504,
            -0.16158834099769592,
            0.13483142852783203,
            0.2288101762533188,
            -0.05702940747141838,
            0.03469496965408325,
            -0.11063478887081146,
            -0.060813263058662415,
            0.08838332444429398,
            0.23167379200458527,
            -0.115277498960495,
            -0.1281529664993286,
            0.29635220766067505
          ],
          [
            -0.11177274584770203,
            -0.06867389380931854,
            0.15104278922080994,
            0.2978382706642151,
            -0.0837690532207489,
            0.10724900662899017,
            0.2606978118419647,
            -0.10994234681129456,
            0.13339167833328247,
            0.059664301574230194,
            0.06205049902200699,
            0.0013286871835589409,
            0.24265111982822418,
            0.1641499102115631,
            -0.18716751039028168,
            -0.0447373129427433,
            -0.036232851445674896,
            -0.3566190302371979,
            0.19724085927009583,
            0.03137695789337158,
            0.22034581005573273,
            -0.2823006212711334,
            0.1468946784734726,
            -0.006422731094062328
          ],
          [
            0.1423376053571701,
            -0.20340639352798462,
            -0.013598104007542133,
            0.03938533365726471,
            0.049224916845560074,
            0.11080589145421982,
            -0.02926434390246868,
            -0.1495393067598343,
            -0.11151601374149323,
            0.10530880093574524,
            -0.021164670586586,
            0.1571175456047058,
            -0.13712866604328156,
            -0.25471818447113037,
            -0.27403199672698975,
            0.08789832144975662,
            -0.2591751515865326,
            -0.13895875215530396,
            -0.018004151061177254,
            -0.11002886295318604,
            -0.045696064829826355,
            -0.06861010938882828,
            -0.12952789664268494,
            -0.005710719618946314
          ],
          [
            -0.14560645818710327,
            -0.01909542828798294,
            0.13427071273326874,
            0.16907645761966705,
            0.21491777896881104,
            0.23089097440242767,
            0.13235846161842346,
            0.0016001195181161165,
            -0.016772162169218063,
            -0.16957007348537445,
            -0.2170283943414688,
            0.09407845139503479,
            0.2816517949104309,
            0.14527349174022675,
            -0.27889078855514526,
            -0.04390651732683182,
            0.052309300750494,
            0.155618816614151,
            0.2227606475353241,
            -0.048267610371112823,
            0.309734970331192,
            -0.10738163441419601,
            0.3343202769756317,
            -0.18925578892230988
          ],
          [
            0.07038914412260056,
            0.01609012484550476,
            0.16474369168281555,
            0.019717060029506683,
            0.06373853236436844,
            0.0015669004060328007,
            -0.15647664666175842,
            -0.1602233201265335,
            -0.021494124084711075,
            0.0009383916622027755,
            0.02960306778550148,
            0.12093022465705872,
            0.03367850184440613,
            -0.03025166317820549,
            0.2340620458126068,
            0.1548384130001068,
            0.005457428749650717,
            -0.2491004317998886,
            0.008216135203838348,
            -0.0798526331782341,
            -0.1658739149570465,
            0.13748855888843536,
            0.0829906016588211,
            0.06008166819810867
          ],
          [
            -0.0006301845423877239,
            -0.07262774556875229,
            0.11117613315582275,
            -0.006147146690636873,
            -0.07653306424617767,
            0.2293437421321869,
            0.2576349675655365,
            0.10865610837936401,
            -0.07369817793369293,
            0.05704108998179436,
            -0.06955300271511078,
            0.05905584618449211,
            0.3620392680168152,
            0.24834054708480835,
            0.11463861912488937,
            0.12442249804735184,
            0.04554056376218796,
            -0.01981169916689396,
            0.1442495882511139,
            0.04363411292433739,
            -0.02546774409711361,
            -0.081442691385746,
            0.23461246490478516,
            -0.2310926616191864
          ],
          [
            0.15046527981758118,
            -0.17760944366455078,
            0.1377420574426651,
            0.04448108747601509,
            0.11423271149396896,
            -0.026261333376169205,
            0.023290157318115234,
            0.012661054730415344,
            -0.1451161950826645,
            -0.16002345085144043,
            -0.20037052035331726,
            0.15700966119766235,
            -0.10110370069742203,
            -0.19508717954158783,
            -0.23678945004940033,
            -0.23814129829406738,
            -0.0420725978910923,
            -0.11927276104688644,
            -0.08478251844644547,
            -0.17809222638607025,
            -0.1569729894399643,
            0.057140521705150604,
            -0.0797312781214714,
            0.05036399886012077
          ],
          [
            -0.013515077531337738,
            0.21941626071929932,
            -0.03923167660832405,
            0.10351437330245972,
            -0.02657608687877655,
            -0.13122498989105225,
            -0.09010396152734756,
            0.1762421429157257,
            0.150709331035614,
            0.10911006480455399,
            0.16561226546764374,
            -0.27262285351753235,
            0.01909284107387066,
            -0.18448302149772644,
            0.1382971853017807,
            -0.020430350676178932,
            0.21452008187770844,
            -0.07493658363819122,
            -0.07238630950450897,
            -0.09049418568611145,
            -0.13054852187633514,
            0.04014395922422409,
            0.05781877040863037,
            0.16396954655647278
          ],
          [
            -0.08448845893144608,
            -0.027375435456633568,
            0.023063743487000465,
            0.09612251073122025,
            -0.01790047250688076,
            0.08106925338506699,
            0.1614445000886917,
            0.2540242671966553,
            0.23700575530529022,
            -0.05271320417523384,
            0.17584168910980225,
            -0.006441558711230755,
            -0.00267489324323833,
            -0.12160944193601608,
            0.19751141965389252,
            0.25110188126564026,
            -0.050220735371112823,
            -0.08724040538072586,
            -0.07732032984495163,
            -0.012270838022232056,
            -0.10324294865131378,
            -0.09554795920848846,
            -0.22276809811592102,
            0.02504867874085903
          ],
          [
            0.12451291084289551,
            0.17092010378837585,
            -0.1598474532365799,
            0.201745867729187,
            0.021922871470451355,
            -0.10461220145225525,
            -0.18630388379096985,
            0.021928563714027405,
            -0.1299431025981903,
            0.09183254837989807,
            -0.027995705604553223,
            0.13399827480316162,
            -0.16259370744228363,
            -0.00112814549356699,
            0.08698317408561707,
            0.06241339445114136,
            -0.16943404078483582,
            -0.09535661339759827,
            0.08054640889167786,
            -0.05940885841846466,
            0.07326903939247131,
            -0.07112869620323181,
            0.06298249959945679,
            0.01991032063961029
          ],
          [
            0.07963854819536209,
            -0.12469302117824554,
            0.10428629070520401,
            0.02177322469651699,
            0.08518818765878677,
            0.09615174680948257,
            -0.041466109454631805,
            0.21766754984855652,
            -0.03982333466410637,
            0.18367968499660492,
            0.16986891627311707,
            0.20162644982337952,
            0.07418803125619888,
            -0.0757870227098465,
            0.09406840056180954,
            0.12860874831676483,
            0.26831695437431335,
            -0.15669414401054382,
            0.05014209821820259,
            -0.19713599979877472,
            0.05623111128807068,
            0.22590899467468262,
            -0.05611145868897438,
            0.29473093152046204
          ],
          [
            0.2314978986978531,
            -0.0844399482011795,
            0.058726344257593155,
            -0.30478253960609436,
            0.011934981681406498,
            -0.05286877602338791,
            0.13322477042675018,
            0.1673678457736969,
            0.2114383429288864,
            -0.053200941532850266,
            -0.02511298842728138,
            -0.04261201247572899,
            -0.005748792085796595,
            0.049195341765880585,
            -0.10259029269218445,
            0.17044948041439056,
            0.25152918696403503,
            -0.26437821984291077,
            -0.2011117786169052,
            0.11441509425640106,
            -0.1225036159157753,
            0.1559874713420868,
            -0.17552146315574646,
            0.21074579656124115
          ],
          [
            0.17123380303382874,
            -0.03634202852845192,
            0.18901054561138153,
            -0.18608137965202332,
            0.008851534686982632,
            -0.06034046411514282,
            -0.09601911902427673,
            0.021396566182374954,
            0.12965917587280273,
            0.23202913999557495,
            -0.047374773770570755,
            -0.20833611488342285,
            -0.005787375848740339,
            0.09559468179941177,
            0.17727108299732208,
            0.24707286059856415,
            0.10564807057380676,
            -0.24831295013427734,
            -0.01853477954864502,
            -0.009364680387079716,
            0.034135762602090836,
            0.21951930224895477,
            0.03753158822655678,
            0.03129464387893677
          ],
          [
            0.03762190043926239,
            -0.07546374201774597,
            0.005284072831273079,
            -0.1967599242925644,
            -0.14912845194339752,
            0.15644235908985138,
            -0.08893338590860367,
            -0.03792290762066841,
            -0.04327724501490593,
            -0.06911170482635498,
            -0.08147256821393967,
            -0.16304177045822144,
            -0.2410036027431488,
            0.029689567163586617,
            0.17250345647335052,
            0.13864031434059143,
            -0.09176096320152283,
            -0.21461601555347443,
            0.06375967711210251,
            -0.03619876131415367,
            0.006590673234313726,
            0.08081112802028656,
            -0.12342330813407898,
            0.16214723885059357
          ],
          [
            0.1768326759338379,
            0.03769579902291298,
            -0.0700085312128067,
            0.017565160989761353,
            0.2234523743391037,
            0.10303741693496704,
            0.16651061177253723,
            0.07816381752490997,
            0.27810096740722656,
            0.18782903254032135,
            0.23006011545658112,
            0.19631226360797882,
            -0.1817460060119629,
            -0.04290105402469635,
            0.23392750322818756,
            -0.044135499745607376,
            -0.00672169541940093,
            -0.05811315402388573,
            -0.1732454150915146,
            -0.19316405057907104,
            -0.10233815759420395,
            0.17465153336524963,
            -0.2335052341222763,
            -0.01924148201942444
          ]
        ],
        "root_weight": [
          [
            -0.21076206862926483,
            0.10003376007080078,
            0.17034053802490234,
            -0.014690712094306946,
            0.13588577508926392,
            0.0014531771885231137,
            0.20130927860736847,
            -0.18982967734336853,
            -0.08370476216077805,
            0.027678247541189194,
            -0.08422353863716125,
            0.1356566697359085,
            0.2563764154911041,
            0.2651855945587158,
            -0.09192341566085815,
            -0.16561737656593323,
            -0.11165137588977814,
            0.006764799822121859,
            0.0004124967672396451,
            0.09226641058921814,
            -0.018773769959807396,
            -0.010103742592036724,
            -0.05125969648361206,
            -0.05354825779795647
          ],
          [
            -0.1260954737663269,
            0.03875132277607918,
            -0.03769893944263458,
            -0.05811747908592224,
            0.03623570129275322,
            -0.1961841583251953,
            -0.19961705803871155,
            -0.039175741374492645,
            0.17983588576316833,
            0.02259615622460842,
            0.18758413195610046,
            0.10775697231292725,
            -0.20214606821537018,
            -0.10415713489055634,
            -0.04842909052968025,
            -0.1082468330860138,
            -0.1203419491648674,
            0.09193313121795654,
            0.1147632896900177,
            0.0834152102470398,
            -0.19873961806297302,
            0.004088104236871004,
            -0.1735897809267044,
            0.009407772682607174
          ],
          [
            -0.21918772161006927,
            -0.16076073050498962,
            0.03361137956380844,
            0.2906219959259033,
            -0.1670442372560501,
            -0.009011715650558472,
            0.16732552647590637,
            -0.26030105352401733,
            -0.34674641489982605,
            0.06874527037143707,
            0.12346795201301575,
            -0.13391917943954468,
            0.23706723749637604,
            0.21220086514949799,
            -0.25255194306373596,
            -0.16270557045936584,
            0.12784028053283691,
            0.16076374053955078,
            -0.06356168538331985,
            0.06601107120513916,
            0.11585842818021774,
            -0.23057711124420166,
            -0.2798905372619629,
            -0.2119954526424408
          ],
          [
            0.1626044362783432,
            0.08655582368373871,
            -0.04243989288806915,
            -0.2663417458534241,
            0.17567819356918335,
            -0.16039513051509857,
            0.11055031418800354,
            0.1521550714969635,
            0.18241539597511292,
            0.20555371046066284,
            0.0980217233300209,
            -0.07269155234098434,
            -0.004552257712930441,
            0.06544976681470871,
            -0.051646050065755844,
            -0.09421271830797195,
            0.32956114411354065,
            -0.17538420855998993,
            0.1401006132364273,
            0.1379345804452896,
            0.15262609720230103,
            0.17328903079032898,
            -0.026672853156924248,
            0.26231521368026733
          ],
          [
            0.01154045108705759,
            0.05575662851333618,
            0.13972210884094238,
            0.10353735089302063,
            -0.10330121219158173,
            0.12891888618469238,
            0.012777612544596195,
            0.19268882274627686,
            0.034766655415296555,
            0.023472385480999947,
            0.20337097346782684,
            -0.07791522890329361,
            -0.03297388553619385,
            -0.06315312534570694,
            -0.07144975662231445,
            0.2155545949935913,
            0.05398744344711304,
            -0.010183204896748066,
            0.14274831116199493,
            -0.09466571360826492,
            0.015420355834066868,
            -0.11588690429925919,
            -0.17841441929340363,
            -0.1094091460108757
          ],
          [
            -0.0046186004765331745,
            -0.047610506415367126,
            -0.07250158488750458,
            -0.039014920592308044,
            -0.03980700299143791,
            -0.014871768653392792,
            -0.08357653021812439,
            0.017380760982632637,
            -0.02507171221077442,
            0.038811132311820984,
            -0.1363421231508255,
            0.08673903346061707,
            -0.17993776500225067,
            0.12326118350028992,
            -0.13925103843212128,
            0.022568993270397186,
            -0.04833775758743286,
            -0.19281578063964844,
            -0.16531896591186523,
            0.0004495044704526663,
            -0.02962084300816059,
            0.08943251520395279,
            -0.011127114295959473,
            0.11527150124311447
          ],
          [
            0.050109244883060455,
            -0.0073753236792981625,
            0.21053540706634521,
            -0.2702626585960388,
            -0.06613919138908386,
            0.008044182322919369,
            0.06558718532323837,
            0.0626261979341507,
            -0.060104385018348694,
            0.015488903038203716,
            0.17210108041763306,
            0.055386826395988464,
            -0.04530858248472214,
            -0.02397305890917778,
            0.09293804317712784,
            0.0681581199169159,
            0.04603409767150879,
            -0.1605483442544937,
            -0.2160423994064331,
            0.004318423103541136,
            0.1424640566110611,
            -0.09374523907899857,
            -0.25987908244132996,
            0.0889485627412796
          ],
          [
            -0.0909380093216896,
            -0.130278542637825,
            0.08429285138845444,
            -0.07502682507038116,
            -0.07156937569379807,
            -0.09203615039587021,
            0.23331035673618317,
            0.07763908803462982,
            0.1620873212814331,
            -0.10556772351264954,
            -0.11809072643518448,
            0.12658828496932983,
            0.3555828630924225,
            0.28391727805137634,
            0.1655275821685791,
            -0.1927300989627838,
            -0.06985975056886673,
            0.07804527133703232,
            0.21576888859272003,
            -0.09467457234859467,
            0.027908235788345337,
            -0.13951198756694794,
            0.24852409958839417,
            0.08010096102952957
          ],
          [
            -0.13386130332946777,
            0.12682096660137177,
            -0.012996414676308632,
            0.03412933275103569,
            0.04793975502252579,
            -0.161939799785614,
            -0.010169709101319313,
            0.2358996868133545,
            0.16372045874595642,
            0.012612140737473965,
            0.07137962430715561,
            0.12243703007698059,
            -0.04208719730377197,
            -0.1830189824104309,
            0.10131578147411346,
            0.18475116789340973,
            0.027614695951342583,
            -0.064775250852108,
            0.13193264603614807,
            -0.09313217550516129,
            -0.04003244265913963,
            0.024391306564211845,
            -0.17016401886940002,
            0.1180424615740776
          ],
          [
            0.2725006639957428,
            -0.02074757218360901,
            -0.043684203177690506,
            0.2089160829782486,
            -0.07033508270978928,
            0.16048097610473633,
            0.095611572265625,
            0.06382638216018677,
            -0.09221208840608597,
            0.0781230479478836,
            0.3820247948169708,
            -0.29467692971229553,
            -0.08366415649652481,
            0.19985751807689667,
            -0.13203561305999756,
            0.037533070892095566,
            0.09106481820344925,
            -0.1801336407661438,
            -0.03054877370595932,
            -0.004588503390550613,
            0.04357021674513817,
            -0.023366892710328102,
            -0.07046601176261902,
            -0.0013082650257274508
          ],
          [
            0.10279648751020432,
            -0.05122319608926773,
            0.05545341596007347,
            0.21419969201087952,
            -0.27119624614715576,
            -0.07383818924427032,
            -0.03091307170689106,
            -0.17507128417491913,
            -0.16548392176628113,
            -0.1515640914440155,
            -0.05081477388739586,
            0.08707361668348312,
            0.14719942212104797,
            0.10599474608898163,
            -0.1013820618391037,
            -0.08367561548948288,
            0.017204299569129944,
            -0.3365184962749481,
            -0.039011791348457336,
            0.09281769394874573,
            0.12569361925125122,
            -0.21673192083835602,
            0.08467726409435272,
            -0.1254010796546936
          ],
          [
            0.07464625686407089,
            -0.14010104537010193,
            -0.2254297286272049,
            0.1029372289776802,
            -0.16688458621501923,
            0.026320673525333405,
            -0.24052278697490692,
            0.05548815056681633,
            0.24602185189723969,
            0.0933096781373024,
            -0.03693048655986786,
            0.47767379879951477,
            0.035033248364925385,
            -0.01228623278439045,
            -0.08550377190113068,
            0.10372728109359741,
            0.01868491619825363,
            0.03434289991855621,
            0.045865725725889206,
            0.05889338254928589,
            -0.050874847918748856,
            -0.07848776876926422,
            -0.16174307465553284,
            -0.16775646805763245
          ],
          [
            -0.02774677984416485,
            -0.13810670375823975,
            0.1292259842157364,
            0.05788611248135567,
            0.044344186782836914,
            0.1333177089691162,
            0.0021850888151675463,
            -0.2460792064666748,
            -0.21039804816246033,
            -0.1164432242512703,
            -0.07661595195531845,
            0.03222537413239479,
            0.10256849974393845,
            0.06725915521383286,
            -0.02521001547574997,
            -0.014222187921404839,
            -0.2614142894744873,
            -0.00617173919454217,
            -0.09518109261989594,
            0.11124011874198914,
            -0.03682617470622063,
            -0.1856369823217392,
            0.2630496919155121,
            -0.13427862524986267
          ],
          [
            0.16092127561569214,
            -0.13514035940170288,
            -0.17381562292575836,
            -0.16899950802326202,
            -0.14320412278175354,
            -0.036142703145742416,
            0.0005536024691537023,
            0.1448550671339035,
            -0.03733930364251137,
            0.17309510707855225,
            -0.035266049206256866,
            -0.17224520444869995,
            0.07343532890081406,
            0.029662590473890305,
            0.02883773110806942,
            0.18756014108657837,
            0.22679394483566284,
            -0.19349507987499237,
            0.14101973176002502,
            0.06891172379255295,
            0.1787547618150711,
            -0.18849116563796997,
            -0.15971164405345917,
            0.18092884123325348
          ],
          [
            -0.15486426651477814,
            0.03950628638267517,
            -0.0434732548892498,
            0.2546675503253937,
            -0.015454564243555069,
            0.13400903344154358,
            0.24789248406887054,
            -0.1281755268573761,
            0.036782242357730865,
            0.10984668880701065,
            -0.17780297994613647,
            -0.005896384362131357,
            0.35260578989982605,
            0.2163989096879959,
            -0.034812141209840775,
            0.14676813781261444,
            -0.2756311297416687,
            -0.014261608943343163,
            0.1759919971227646,
            0.09838324785232544,
            0.09660633653402328,
            -0.20341120660305023,
            0.16068314015865326,
            -0.23964689671993256
          ],
          [
            -0.07440217584371567,
            0.009647891856729984,
            -0.1449945867061615,
            -0.11174696683883667,
            -0.2128657102584839,
            -0.12898975610733032,
            -0.15718773007392883,
            0.02963148057460785,
            -0.10665402561426163,
            -0.13934768736362457,
            0.07843321561813354,
            -0.15654367208480835,
            0.15121197700500488,
            -0.0871506780385971,
            -0.04017465561628342,
            0.09036769717931747,
            0.05937855318188667,
            0.051701661199331284,
            -0.02174760401248932,
            -0.16193222999572754,
            0.1166650578379631,
            0.04138021543622017,
            -0.21387532353401184,
            0.12317287921905518
          ],
          [
            -0.039552852511405945,
            0.041319794952869415,
            0.11565995961427689,
            -0.24966810643672943,
            0.15103460848331451,
            -0.1609986275434494,
            -0.05498809367418289,
            0.04531175270676613,
            -0.09809829294681549,
            -0.039616771042346954,
            0.06862422078847885,
            -0.2189049869775772,
            -0.1730281114578247,
            -0.02913048304617405,
            -0.038702428340911865,
            -0.19092224538326263,
            -0.029813742265105247,
            -0.19830361008644104,
            0.16719244420528412,
            -0.16397061944007874,
            0.07996626198291779,
            -0.0014449351001530886,
            -0.2197902798652649,
            -0.09715371578931808
          ],
          [
            0.03776406869292259,
            0.096219502389431,
            0.26555371284484863,
            -0.14534834027290344,
            0.23180849850177765,
            -0.053369488567113876,
            -0.04248911514878273,
            -0.07147238403558731,
            -0.112987220287323,
            0.3173505961894989,
            0.04551767185330391,
            -0.13957759737968445,
            0.06831202656030655,
            0.03298881649971008,
            5.8030011132359505e-05,
            0.24225078523159027,
            0.23673246800899506,
            0.05070389807224274,
            0.1125839427113533,
            -0.1180807426571846,
            -0.0830799862742424,
            0.03530289977788925,
            -0.11245863139629364,
            0.11582368612289429
          ],
          [
            -0.06184820830821991,
            -0.09888823330402374,
            -0.11638778448104858,
            -0.04828052222728729,
            -0.11916559934616089,
            -0.12650097906589508,
            -0.0610201358795166,
            0.021262407302856445,
            0.13487866520881653,
            0.09472024440765381,
            0.15254616737365723,
            0.13806277513504028,
            0.1709994375705719,
            0.010944783687591553,
            0.006353452801704407,
            0.17788854241371155,
            -0.06758204102516174,
            0.07326763868331909,
            -0.010997116565704346,
            -0.02075052261352539,
            -0.20402979850769043,
            -0.11379437148571014,
            0.015028528869152069,
            -0.07664476335048676
          ],
          [
            -0.007033891975879669,
            -0.00753583200275898,
            0.10519668459892273,
            0.09885333478450775,
            0.057847194373607635,
            -0.03383895754814148,
            -0.13223370909690857,
            0.2735988199710846,
            0.21599067747592926,
            0.2316696047782898,
            -0.02979663945734501,
            -0.18647997081279755,
            -0.08049125969409943,
            -0.0595785528421402,
            0.19219079613685608,
            0.18174205720424652,
            0.15329043567180634,
            -0.005913313943892717,
            -0.046772103756666183,
            0.141253262758255,
            0.19098511338233948,
            -0.11047511547803879,
            -0.2243041694164276,
            0.06716186553239822
          ],
          [
            0.059301141649484634,
            0.18095359206199646,
            -0.10394231975078583,
            0.00256576226092875,
            0.21040767431259155,
            0.12348093092441559,
            0.09170129150152206,
            0.280412495136261,
            0.16044308245182037,
            -0.10192445665597916,
            0.25370532274246216,
            -0.13222305476665497,
            -0.24604108929634094,
            -0.06277668476104736,
            0.16302742063999176,
            0.21198123693466187,
            0.2973576486110687,
            -0.015431305393576622,
            -0.08287792652845383,
            0.04572831466794014,
            -0.0491214245557785,
            0.13395647704601288,
            -0.18761564791202545,
            -0.04991644620895386
          ],
          [
            0.21950006484985352,
            0.04649330675601959,
            0.195790633559227,
            -0.22305531799793243,
            -0.059899669140577316,
            0.07994817197322845,
            -0.09655791521072388,
            0.29306453466415405,
            0.23249471187591553,
            0.24099114537239075,
            -0.011755918152630329,
            0.04996884614229202,
            -0.2961704134941101,
            -0.168899804353714,
            0.18226687610149384,
            0.00711196381598711,
            0.20059309899806976,
            -0.04166349768638611,
            0.010442673228681087,
            0.03766443580389023,
            -0.1760479062795639,
            0.003749561496078968,
            -0.1481384038925171,
            -0.043879952281713486
          ],
          [
            -0.09877403825521469,
            0.046015553176403046,
            0.13667835295200348,
            -0.2350989282131195,
            0.18843217194080353,
            0.1766582876443863,
            -0.15529115498065948,
            0.12296246737241745,
            -0.10865028947591782,
            0.0956505760550499,
            0.16822504997253418,
            0.15002933144569397,
            -0.11609639972448349,
            -0.1883973330259323,
            0.023802781477570534,
            0.17529034614562988,
            0.2510441541671753,
            -0.24621370434761047,
            0.0319843627512455,
            0.18303103744983673,
            0.003061773255467415,
            0.09081286191940308,
            -0.22027476131916046,
            0.24385912716388702
          ],
          [
            0.18105435371398926,
            -0.04624021425843239,
            0.18259015679359436,
            -0.1414521038532257,
            -0.06666183471679688,
            0.1495765894651413,
            -0.04711072891950607,
            -0.04536563903093338,
            0.16815093159675598,
            0.12330010533332825,
            0.04896164312958717,
            -0.12218231707811356,
            0.03352570906281471,
            -0.013256597332656384,
            0.01887001469731331,
            0.07464311271905899,
            0.16377921402454376,
            0.030803821980953217,
            0.0009132070117630064,
            -0.16402512788772583,
            -0.02899317257106304,
            -0.05507024750113487,
            -0.233526811003685,
            0.19159546494483948
          ]
        ]
      },
      "edge_encoder": {
        "bias": [
          -0.02996889129281044,
          0.16073022782802582,
          0.09296153485774994,
          -0.2346532940864563,
          -0.2364458441734314,
          0.30620482563972473,
          -0.20471790432929993,
          -0.2481725662946701,
          -0.23221556842327118,
          -0.42969438433647156,
          0.15078061819076538,
          0.03854168951511383,
          -0.1988520622253418,
          -0.04279475286602974,
          0.030646149069070816,
          0.1564747393131256,
          0.17358346283435822,
          -0.16006377339363098,
          0.23876313865184784,
          0.32203152775764465,
          -0.1960577517747879,
          0.288813054561615,
          -0.2197667956352234,
          -0.2612186670303345
        ],
        "weight": [
          [
            0.10525258630514145,
            0.1809822916984558,
            -1.3923228834755719e-05,
            -0.12565290927886963,
            -0.004898966755717993,
            -0.03738260641694069,
            -0.1702311784029007,
            0.00898117758333683
          ],
          [
            0.11252636462450027,
            -0.35329747200012207,
            0.010651655495166779,
            -0.06502310931682587,
            -0.24354150891304016,
            -0.11646363884210587,
            -0.2636167109012604,
            0.046623919159173965
          ],
          [
            0.22924672067165375,
            0.3458043932914734,
            0.47703859210014343,
            -0.08870559930801392,
            0.21536795794963837,
            -0.01824786141514778,
            0.2325216680765152,
            -0.13437537848949432
          ],
          [
            -0.19864505529403687,
            -0.13045115768909454,
            -0.25648045539855957,
            -0.09680980443954468,
            0.022598542273044586,
            0.29272228479385376,
            -0.20147332549095154,
            -0.34395071864128113
          ],
          [
            -0.06712677329778671,
            0.3361996114253998,
            0.07571574300527573,
            0.14816251397132874,
            0.010262244381010532,
            0.3199661076068878,
            -0.36856764554977417,
            0.2599673867225647
          ],
          [
            0.001339621259830892,
            0.23370398581027985,
            -0.18969395756721497,
            0.04977666586637497,
            -0.2844318151473999,
            0.38073211908340454,
            -0.03866446018218994,
            -0.2714717984199524
          ],
          [
            0.09671756625175476,
            -0.06063573434948921,
            -0.08118052780628204,
            -0.2661912739276886,
            -0.33279678225517273,
            0.25581830739974976,
            -0.20256562530994415,
            0.03824589028954506
          ],
          [
            0.01690257154405117,
            0.27430450916290283,
            -0.36345335841178894,
            -0.1174101009964943,
            0.0004853233112953603,
            -0.14790312945842743,
            0.26744863390922546,
            0.253790944814682
          ],
          [
            0.13559137284755707,
            0.24175061285495758,
            -0.4151948094367981,
            0.07627606391906738,
            -0.35395774245262146,
            -0.10648955404758453,
            -0.24989916384220123,
            -0.45958176255226135
          ],
          [
            0.1597452610731125,
            -0.09192896634340286,
            0.0049672434106469154,
            0.019791599363088608,
            -0.12190699577331543,
            -0.07748574763536453,
            0.18037745356559753,
            0.1604403704404831
          ],
          [
            -0.30939769744873047,
            0.43032029271125793,
            0.0220028143376112,
            0.17192992568016052,
            0.36383703351020813,
            0.004038947634398937,
            -0.16508714854717255,
            0.2280423492193222
          ],
          [
            -0.1680745929479599,
            -0.14729759097099304,
            -0.12771953642368317,
            -0.2230149358510971,
            -0.3334069848060608,
            -0.25122150778770447,
            0.19926901161670685,
            -0.39890748262405396
          ],
          [
            -0.3973686695098877,
            0.002323630964383483,
            0.3639485239982605,
            0.3919806182384491,
            -0.1912621408700943,
            0.14018946886062622,
            0.21198666095733643,
            -0.2116914838552475
          ],
          [
            0.11783662438392639,
            -0.16618776321411133,
            0.25829747319221497,
            -0.3693896234035492,
            -0.2818194031715393,
            -0.2842050790786743,
            -0.10470151156187057,
            0.011189059354364872
          ],
          [
            -0.17197519540786743,
            -0.26888787746429443,
            0.1463513970375061,
            0.20229129493236542,
            -0.1706751137971878,
            -0.3198409378528595,
            -0.1717292070388794,
            0.10476560145616531
          ],
          [
            -0.4331868588924408,
            -0.19142700731754303,
            0.10095091909170151,
            -0.3058850169181824,
            0.404678612947464,
            0.1328572928905487,
            0.2292158305644989,
            -0.16269105672836304
          ],
          [
            -0.2523801326751709,
            0.035929083824157715,
            0.13154606521129608,
            0.2533973157405853,
            -0.580073356628418,
            0.1824304163455963,
            0.21705064177513123,
            -0.2188354730606079
          ],
          [
            -0.22126421332359314,
            0.24841029942035675,
            -0.35222333669662476,
            -0.07668989151716232,
            -0.10506937652826309,
            0.302748441696167,
            -0.13156037032604218,
            0.1405617743730545
          ],
          [
            0.3020760416984558,
            -0.16344822943210602,
            -0.27177318930625916,
            0.1594497561454773,
            0.24805790185928345,
            -0.1383681297302246,
            -0.3315827548503876,
            0.06048400327563286
          ],
          [
            -0.011477754451334476,
            -0.17105695605278015,
            -0.038071632385253906,
            0.1807234287261963,
            0.20402908325195312,
            -0.0591270737349987,
            0.2933104336261749,
            -0.006573508493602276
          ],
          [
            -0.4104340672492981,
            0.2373669594526291,
            0.42170214653015137,
            0.3801860809326172,
            0.08890747278928757,
            -0.16430513560771942,
            0.011598343960940838,
            0.14268645644187927
          ],
          [
            0.043344177305698395,
            0.01618579402565956,
            0.01926831528544426,
            0.19741235673427582,
            -0.04500431567430496,
            0.20090661942958832,
            -0.07082467526197433,
            -0.408026784658432
          ],
          [
            -0.13609182834625244,
            -0.32571539282798767,
            0.3622896373271942,
            0.018275663256645203,
            -0.13895057141780853,
            -0.16873346269130707,
            0.08916087448596954,
            0.1631178855895996
          ],
          [
            -0.05107957497239113,
            0.2529628872871399,
            0.17561915516853333,
            -0.3010486960411072,
            0.0799420028924942,
            0.3511044681072235,
            -0.17138002812862396,
            -0.06455665826797485
          ]
        ]
      },
      "head_hidden": {
        "bias": [
          0.007055534049868584,
          0.05018746852874756,
          -0.01072672288864851,
          -0.17976632714271545,
          -0.18424667418003082,
          0.07777632772922516,
          -0.0010722995502874255,
          0.11051267385482788,
          -0.055738482624292374,
          0.008724101819097996,
          0.16382186114788055,
          -0.06334911286830902,
          -0.028501592576503754,
          -0.15101753175258636,
          0.10095062106847763,
          -0.25461360812187195,
          0.11627402901649475,
          0.0872277319431305,
          -0.1567680984735489,
          -0.09323052316904068,
          -0.1071554645895958,
          0.16194011270999908,
          0.0992937758564949,
          0.20217621326446533
        ],
        "weight": [
          [
            0.21501336991786957,
            0.10553711652755737,
            0.3421035408973694,
            -0.025936177000403404,
            0.1499893218278885,
            0.00533752515912056,
            0.10951089859008789,
            0.17517365515232086,
            -0.1285162717103958,
            0.2608400583267212,
            0.0029612670186907053,
            -0.22075124084949493,
            0.2708722949028015,
            0.15505076944828033,
            0.145099475979805,
            -0.08861865848302841,
            -0.14678144454956055,
            -0.026062218472361565,
            0.06378394365310669,
            -0.2074345499277115,
            -0.12824909389019012,
            -0.12707027792930603,
            -0.0003871615626849234,
            -0.09434887766838074
          ],
          [
            -0.14213404059410095,
            -0.05048993229866028,
            -0.0903373435139656,
            0.03507019579410553,
            0.0980883538722992,
            0.011605501174926758,
            -0.1512162983417511,
            -0.15032926201820374,
            0.17928770184516907,
            -0.09140794724225998,
            0.016289353370666504,
            -0.11367997527122498,
            0.012543126940727234,
            -0.030180156230926514,
            -0.146657794713974,
            -0.12198487669229507,
            -0.14806342124938965,
            0.13540253043174744,
            -0.12382424622774124,
            0.19401636719703674,
            -0.1985933631658554,
            -0.08729466050863266,
            -0.17119063436985016,
            -0.15973246097564697
          ],
          [
            0.1706700474023819,
            0.17332172393798828,
            0.03061232715845108,
            -0.03134938329458237,
            -0.18828971683979034,
            -0.17257195711135864,
            0.030138468369841576,
            -0.08412802219390869,
            -0.19047845900058746,
            0.01835968904197216,
            0.007670884020626545,
            -0.10273483395576477,
            -0.005994441919028759,
            -0.1329777091741562,
            -0.14966951310634613,
            0.21596044301986694,
            0.15447232127189636,
            -0.002257672604173422,
            -0.11154086887836456,
            -0.10850448161363602,
            -0.204452246427536,
            -0.09055791050195694,
            0.1542578935623169,
            0.0293926652520895
          ],
          [
            -0.13809846341609955,
            0.08428912609815598,
            -0.07667089253664017,
            0.06790096312761307,
            0.0729096382856369,
            -0.010335040278732777,
            0.23018598556518555,
            0.011057970114052296,
            0.15855850279331207,
            -0.08494936674833298,
            -0.1424197554588318,
            -0.038128431886434555,
            0.08294425159692764,
            0.013304761610925198,
            -0.05699877068400383,
            0.07200053334236145,
            -0.17967277765274048,
            0.24469411373138428,
            -0.011084213852882385,
            0.22712112963199615,
            0.06172182783484459,
            0.23526938259601593,
            0.0974176824092865,
            -0.07485409080982208
          ],
          [
            0.19814342260360718,
            0.04080730676651001,
            -0.19240771234035492,
            -0.1338568478822708,
            -0.05411939322948456,
            0.12341481447219849,
            0.1336973011493683,
            -0.01051998883485794,
            -0.019927889108657837,
            0.19772756099700928,
            -0.19237902760505676,
            0.016044363379478455,
            -0.16960078477859497,
            -0.1362357884645462,
            -0.0864577367901802,
            0.1759829819202423,
            0.1675209403038025,
            -0.12357646226882935,
            0.026478394865989685,
            -0.027540385723114014,
            -0.16559520363807678,
            0.13527163863182068,
            0.0923779308795929,
            -0.17636162042617798
          ],
          [
            -0.09771265834569931,
            -0.03625393286347389,
            0.16308484971523285,
            0.0667899027466774,
            -0.17760424315929413,
            -0.1310039758682251,
            -0.01162094995379448,
            -0.07233946025371552,
            -0.1839044839143753,
            0.02952209673821926,
            -0.19395996630191803,
            -0.034065909683704376,
            0.09175962954759598,
            -0.18812236189842224,
            -0.06148265302181244,
            -0.003802078776061535,
            -0.01616603322327137,
            -0.06182292476296425,
            0.08191409707069397,
            -0.059134066104888916,
            -0.1862521767616272,
            -0.1722128689289093,
            -0.052379194647073746,
            -0.09745772927999496
          ],
          [
            0.019581589847803116,
            -0.018637295812368393,
            -0.14573416113853455,
            -0.16521264612674713,
            0.02788606658577919,
            -0.20538945496082306,
            -0.08405280858278275,
            0.0979880765080452,
            -0.15131203830242157,
            0.012682161293923855,
            0.03785373270511627,
            0.18108242750167847,
            -0.21867063641548157,
            -0.05074086785316467,
            0.033713169395923615,
            0.0621350035071373,
            0.12058838456869125,
            0.036515429615974426,
            0.0803021490573883,
            -0.061424531042575836,
            0.16405121982097626,
            -0.1976350098848343,
            -0.06042289733886719,
            0.1745942234992981
          ],
          [
            -0.08350226283073425,
            -0.14848841726779938,
            -0.13646677136421204,
            0.14816202223300934,
            -0.12850868701934814,
            -0.04664849489927292,
            0.19197756052017212,
            -0.062355317175388336,
            0.04032771661877632,
            -0.22787056863307953,
            0.039840247482061386,
            -0.05157751962542534,
            -0.160625621676445,
            0.17774344980716705,
            -0.23676073551177979,
            -0.06178880110383034,
            0.07177827507257462,
            0.14927120506763458,
            0.010983079671859741,
            0.20657482743263245,
            0.19320163130760193,
            0.2159145325422287,
            -0.04020220786333084,
            0.1583215296268463
          ],
          [
            -0.10222885012626648,
            -0.044870249927043915,
            -0.24724961817264557,
            0.1816730499267578,
            0.12451685965061188,
            0.09881649166345596,
            -0.0883735716342926,
            0.018654150888323784,
            -0.12029755115509033,
            0.044268541038036346,
            -0.003971149679273367,
            -0.012893302366137505,
            -0.04860379546880722,
            0.02999889850616455,
            -0.07942873239517212,
            0.02339707873761654,
            0.1548321396112442,
            0.2821544408798218,
            0.053570181131362915,
            0.2315741777420044,
            0.28850677609443665,
            0.1900865137577057,
            0.21603767573833466,
            -0.0056367358192801476
          ],
          [
            0.0035183182917535305,
            0.14650745689868927,
            0.05908755958080292,
            -0.057776596397161484,
            -0.017985127866268158,
            -0.12716588377952576,
            -0.09616860747337341,
            0.04278750345110893,
            -0.005525922402739525,
            -0.02406100183725357,
            0.06198951601982117,
            0.1185709536075592,
            -0.07528555393218994,
            0.14151644706726074,
            -0.09577454626560211,
            0.16094307601451874,
            0.053246233612298965,
            -0.014193461276590824,
            0.0483475923538208,
            -0.19512306153774261,
            0.12009809911251068,
            -0.009026817977428436,
            -0.10712199658155441,
            -0.010091901756823063
          ],
          [
            -0.13582611083984375,
            -0.12885859608650208,
            -0.31895017623901367,
            0.13141047954559326,
            0.03413219004869461,
            -0.0765332505106926,
            -0.02184656262397766,
            -0.2535160779953003,
            0.21411167085170746,
            -0.22466693818569183,
            -0.17834404110908508,
            0.2176988422870636,
            -0.22966238856315613,
            0.1837364286184311,
            -0.05399773269891739,
            -0.20044037699699402,
            0.15264350175857544,
            0.1971501111984253,
            0.010002516210079193,
            0.07999041676521301,
            0.20418478548526764,
            0.17278586328029633,
            0.12320926040410995,
            0.0913156047463417
          ],
          [
            -0.025369122624397278,
            0.06426036357879639,
            0.1274036169052124,
            -0.1872519999742508,
            -0.03650364279747009,
            -0.03400181233882904,
            0.13378700613975525,
            0.03307022154331207,
            0.16354608535766602,
            0.008407346904277802,
            -0.04723939299583435,
            -0.19465041160583496,
            -0.026752173900604248,
            0.016328662633895874,
            -0.17542913556098938,
            -0.0404738187789917,
            0.16196143627166748,
            -0.06625136733055115,
